<?xml version="1.0"?>
<opencv_storage>
<!-- Created using Computer Vision Toolbox(tm) for MATLAB(R) -->
<!-- Version 9.6.0.1072779 (R2019a) -->
<!-- Compatible with OpenCV 3.4 -->
<cascade>
  <stageType>BOOST</stageType>
  <featureType>HAAR</featureType>
  <height>32</height>
  <width>46</width>
  <stageParams>
    <boostType>GAB</boostType>
    <minHitRate>9.9500000476837158e-01</minHitRate>
    <maxFalseAlarm>5.0000000000000000e-01</maxFalseAlarm>
    <weightTrimRate>9.4999999999999996e-01</weightTrimRate>
    <maxDepth>1</maxDepth>
    <maxWeakCount>100</maxWeakCount></stageParams>
  <featureParams>
    <maxCatCount>0</maxCatCount>
    <featSize>1</featSize>
    <mode>BASIC</mode></featureParams>
  <stageNum>11</stageNum>
  <stages>
    <!-- stage 0 -->
    <_>
      <maxWeakCount>1</maxWeakCount>
      <stageThreshold>1.</stageThreshold>
      <weakClassifiers>
        <_>
          <internalNodes>
            0 -1 2 -3.8168519735336304e-02</internalNodes>
          <leafValues>
            1. -1.</leafValues></_></weakClassifiers></_>
    <!-- stage 1 -->
    <_>
      <maxWeakCount>2</maxWeakCount>
      <stageThreshold>9.5246925950050354e-02</stageThreshold>
      <weakClassifiers>
        <_>
          <internalNodes>
            0 -1 1 -3.8032056181691587e-04</internalNodes>
          <leafValues>
            1. -8.9473682641983032e-01</leafValues></_>
        <_>
          <internalNodes>
            0 -1 3 1.1490033939480782e-02</internalNodes>
          <leafValues>
            -9.0475308895111084e-01 1.</leafValues></_></weakClassifiers></_>
    <!-- stage 2 -->
    <_>
      <maxWeakCount>1</maxWeakCount>
      <stageThreshold>1.</stageThreshold>
      <weakClassifiers>
        <_>
          <internalNodes>
            0 -1 11 7.2628594934940338e-03</internalNodes>
          <leafValues>
            -1. 1.</leafValues></_></weakClassifiers></_>
    <!-- stage 3 -->
    <_>
      <maxWeakCount>1</maxWeakCount>
      <stageThreshold>8.0000001192092896e-01</stageThreshold>
      <weakClassifiers>
        <_>
          <internalNodes>
            0 -1 8 -3.0001338571310043e-02</internalNodes>
          <leafValues>
            8.0000001192092896e-01 -1.</leafValues></_></weakClassifiers></_>
    <!-- stage 4 -->
    <_>
      <maxWeakCount>2</maxWeakCount>
      <stageThreshold>1.0526315867900848e-01</stageThreshold>
      <weakClassifiers>
        <_>
          <internalNodes>
            0 -1 10 2.9514104244299233e-04</internalNodes>
          <leafValues>
            -8.9473682641983032e-01 1.</leafValues></_>
        <_>
          <internalNodes>
            0 -1 12 2.1309641306288540e-04</internalNodes>
          <leafValues>
            -8.1816571950912476e-01 1.</leafValues></_></weakClassifiers></_>
    <!-- stage 5 -->
    <_>
      <maxWeakCount>2</maxWeakCount>
      <stageThreshold>6.2097609043121338e-02</stageThreshold>
      <weakClassifiers>
        <_>
          <internalNodes>
            0 -1 16 7.6739452197216451e-06</internalNodes>
          <leafValues>
            -8.9189189672470093e-01 8.8235294818878174e-01</leafValues></_>
        <_>
          <internalNodes>
            0 -1 7 1.1166985146701336e-02</internalNodes>
          <leafValues>
            -8.2025533914566040e-01 1.</leafValues></_></weakClassifiers></_>
    <!-- stage 6 -->
    <_>
      <maxWeakCount>2</maxWeakCount>
      <stageThreshold>1.3103313744068146e-01</stageThreshold>
      <weakClassifiers>
        <_>
          <internalNodes>
            0 -1 9 1.8379916436970234e-03</internalNodes>
          <leafValues>
            -8.0000001192092896e-01 1.</leafValues></_>
        <_>
          <internalNodes>
            0 -1 6 1.7694102134555578e-03</internalNodes>
          <leafValues>
            -8.2887369394302368e-01 9.3103313446044922e-01</leafValues></_></weakClassifiers></_>
    <!-- stage 7 -->
    <_>
      <maxWeakCount>1</maxWeakCount>
      <stageThreshold>6.3636362552642822e-01</stageThreshold>
      <weakClassifiers>
        <_>
          <internalNodes>
            0 -1 4 1.1157003464177251e-03</internalNodes>
          <leafValues>
            -1. 6.3636362552642822e-01</leafValues></_></weakClassifiers></_>
    <!-- stage 8 -->
    <_>
      <maxWeakCount>2</maxWeakCount>
      <stageThreshold>-2.3653709888458252e-01</stageThreshold>
      <weakClassifiers>
        <_>
          <internalNodes>
            0 -1 14 -1.0018880711868405e-03</internalNodes>
          <leafValues>
            6.9999998807907104e-01 -9.2592591047286987e-01</leafValues></_>
        <_>
          <internalNodes>
            0 -1 15 6.1809830367565155e-03</internalNodes>
          <leafValues>
            -9.3653708696365356e-01 7.9610794782638550e-01</leafValues></_></weakClassifiers></_>
    <!-- stage 9 -->
    <_>
      <maxWeakCount>2</maxWeakCount>
      <stageThreshold>1.6676916182041168e-01</stageThreshold>
      <weakClassifiers>
        <_>
          <internalNodes>
            0 -1 5 -2.8126528486609459e-03</internalNodes>
          <leafValues>
            1. -8.0000001192092896e-01</leafValues></_>
        <_>
          <internalNodes>
            0 -1 13 1.8739738734439015e-03</internalNodes>
          <leafValues>
            -8.3323085308074951e-01 1.</leafValues></_></weakClassifiers></_>
    <!-- stage 10 -->
    <_>
      <maxWeakCount>1</maxWeakCount>
      <stageThreshold>1.</stageThreshold>
      <weakClassifiers>
        <_>
          <internalNodes>
            0 -1 0 -2.1113778348080814e-04</internalNodes>
          <leafValues>
            -1. 1.</leafValues></_></weakClassifiers></_></stages>
  <features>
    <_>
      <rects>
        <_>
          0 9 6 4 -1.</_>
        <_>
          0 9 3 2 2.</_>
        <_>
          3 11 3 2 2.</_></rects>
      <tilted>0</tilted></_>
    <_>
      <rects>
        <_>
          0 11 2 6 -1.</_>
        <_>
          1 11 1 6 2.</_></rects>
      <tilted>0</tilted></_>
    <_>
      <rects>
        <_>
          1 3 29 28 -1.</_>
        <_>
          1 17 29 14 2.</_></rects>
      <tilted>0</tilted></_>
    <_>
      <rects>
        <_>
          3 7 10 8 -1.</_>
        <_>
          8 7 5 8 2.</_></rects>
      <tilted>0</tilted></_>
    <_>
      <rects>
        <_>
          3 15 8 1 -1.</_>
        <_>
          7 15 4 1 2.</_></rects>
      <tilted>0</tilted></_>
    <_>
      <rects>
        <_>
          5 23 14 2 -1.</_>
        <_>
          5 24 14 1 2.</_></rects>
      <tilted>0</tilted></_>
    <_>
      <rects>
        <_>
          7 28 12 3 -1.</_>
        <_>
          7 29 12 1 3.</_></rects>
      <tilted>0</tilted></_>
    <_>
      <rects>
        <_>
          8 22 18 1 -1.</_>
        <_>
          14 22 6 1 3.</_></rects>
      <tilted>0</tilted></_>
    <_>
      <rects>
        <_>
          10 17 22 8 -1.</_>
        <_>
          21 17 11 8 2.</_></rects>
      <tilted>0</tilted></_>
    <_>
      <rects>
        <_>
          10 21 8 2 -1.</_>
        <_>
          10 21 4 1 2.</_>
        <_>
          14 22 4 1 2.</_></rects>
      <tilted>0</tilted></_>
    <_>
      <rects>
        <_>
          11 23 2 6 -1.</_>
        <_>
          11 26 2 3 2.</_></rects>
      <tilted>0</tilted></_>
    <_>
      <rects>
        <_>
          12 12 4 18 -1.</_>
        <_>
          12 18 4 6 3.</_></rects>
      <tilted>0</tilted></_>
    <_>
      <rects>
        <_>
          12 25 1 2 -1.</_>
        <_>
          12 26 1 1 2.</_></rects>
      <tilted>0</tilted></_>
    <_>
      <rects>
        <_>
          20 7 5 6 -1.</_>
        <_>
          20 10 5 3 2.</_></rects>
      <tilted>0</tilted></_>
    <_>
      <rects>
        <_>
          20 25 6 6 -1.</_>
        <_>
          22 25 2 6 3.</_></rects>
      <tilted>0</tilted></_>
    <_>
      <rects>
        <_>
          23 2 6 11 -1.</_>
        <_>
          25 2 2 11 3.</_></rects>
      <tilted>0</tilted></_>
    <_>
      <rects>
        <_>
          24 10 2 1 -1.</_>
        <_>
          25 10 1 1 2.</_></rects>
      <tilted>0</tilted></_></features></cascade>
</opencv_storage>
